digraph Tree {
node [shape=box] ;
0 [label="X[3] <= 0.5\nentropy = 0.9623\nsamples = 435\nvalue = [168, 267]"] ;
1 [label="X[2] <= 0.5\nentropy = 0.0679\nsamples = 247\nvalue = [2, 245]"] ;
0 -> 1 [labeldistance=2.5, labelangle=45, headlabel="True"] ;
2 [label="X[11] <= 1.5\nentropy = 0.4022\nsamples = 25\nvalue = [2, 23]"] ;
1 -> 2 ;
3 [label="X[5] <= 0.5\nentropy = 0.2499\nsamples = 24\nvalue = [1, 23]"] ;
2 -> 3 ;
4 [label="X[14] <= 0.5\nentropy = 0.5917\nsamples = 7\nvalue = [1, 6]"] ;
3 -> 4 ;
5 [label="entropy = 0.0\nsamples = 1\nvalue = [1, 0]"] ;
4 -> 5 ;
6 [label="entropy = 0.0\nsamples = 6\nvalue = [0, 6]"] ;
4 -> 6 ;
7 [label="entropy = 0.0\nsamples = 17\nvalue = [0, 17]"] ;
3 -> 7 ;
8 [label="entropy = 0.0\nsamples = 1\nvalue = [1, 0]"] ;
2 -> 8 ;
9 [label="entropy = 0.0\nsamples = 222\nvalue = [0, 222]"] ;
1 -> 9 ;
10 [label="X[10] <= 0.5\nentropy = 0.5207\nsamples = 188\nvalue = [166, 22]"] ;
0 -> 10 [labeldistance=2.5, labelangle=-45, headlabel="False"] ;
11 [label="X[9] <= 0.5\nentropy = 0.1502\nsamples = 139\nvalue = [136, 3]"] ;
10 -> 11 ;
12 [label="X[11] <= 0.5\nentropy = 0.2795\nsamples = 62\nvalue = [59, 3]"] ;
11 -> 12 ;
13 [label="X[8] <= 0.5\nentropy = 0.8631\nsamples = 7\nvalue = [5, 2]"] ;
12 -> 13 ;
14 [label="X[12] <= 1.5\nentropy = 0.65\nsamples = 6\nvalue = [5, 1]"] ;
13 -> 14 ;
15 [label="entropy = 0.0\nsamples = 4\nvalue = [4, 0]"] ;
14 -> 15 ;
16 [label="X[7] <= 1.0\nentropy = 1.0\nsamples = 2\nvalue = [1, 1]"] ;
14 -> 16 ;
17 [label="entropy = 0.0\nsamples = 1\nvalue = [0, 1]"] ;
16 -> 17 ;
18 [label="entropy = 0.0\nsamples = 1\nvalue = [1, 0]"] ;
16 -> 18 ;
19 [label="entropy = 0.0\nsamples = 1\nvalue = [0, 1]"] ;
13 -> 19 ;
20 [label="X[2] <= 0.5\nentropy = 0.1311\nsamples = 55\nvalue = [54, 1]"] ;
12 -> 20 ;
21 [label="entropy = 0.0\nsamples = 50\nvalue = [50, 0]"] ;
20 -> 21 ;
22 [label="X[15] <= 1.5\nentropy = 0.7219\nsamples = 5\nvalue = [4, 1]"] ;
20 -> 22 ;
23 [label="entropy = 0.0\nsamples = 3\nvalue = [3, 0]"] ;
22 -> 23 ;
24 [label="X[1] <= 1.5\nentropy = 1.0\nsamples = 2\nvalue = [1, 1]"] ;
22 -> 24 ;
25 [label="entropy = 0.0\nsamples = 1\nvalue = [0, 1]"] ;
24 -> 25 ;
26 [label="entropy = 0.0\nsamples = 1\nvalue = [1, 0]"] ;
24 -> 26 ;
27 [label="entropy = 0.0\nsamples = 77\nvalue = [77, 0]"] ;
11 -> 27 ;
28 [label="X[2] <= 0.5\nentropy = 0.9633\nsamples = 49\nvalue = [30, 19]"] ;
10 -> 28 ;
29 [label="X[4] <= 0.5\nentropy = 0.6632\nsamples = 29\nvalue = [24, 5]"] ;
28 -> 29 ;
30 [label="entropy = 0.0\nsamples = 2\nvalue = [0, 2]"] ;
29 -> 30 ;
31 [label="X[9] <= 0.5\nentropy = 0.5033\nsamples = 27\nvalue = [24, 3]"] ;
29 -> 31 ;
32 [label="X[12] <= 0.5\nentropy = 0.6962\nsamples = 16\nvalue = [13, 3]"] ;
31 -> 32 ;
33 [label="entropy = 0.0\nsamples = 1\nvalue = [0, 1]"] ;
32 -> 33 ;
34 [label="X[11] <= 0.5\nentropy = 0.5665\nsamples = 15\nvalue = [13, 2]"] ;
32 -> 34 ;
35 [label="X[15] <= 1.5\nentropy = 1.0\nsamples = 2\nvalue = [1, 1]"] ;
34 -> 35 ;
36 [label="entropy = 0.0\nsamples = 1\nvalue = [1, 0]"] ;
35 -> 36 ;
37 [label="entropy = 0.0\nsamples = 1\nvalue = [0, 1]"] ;
35 -> 37 ;
38 [label="X[1] <= 0.5\nentropy = 0.3912\nsamples = 13\nvalue = [12, 1]"] ;
34 -> 38 ;
39 [label="X[0] <= 0.5\nentropy = 0.9183\nsamples = 3\nvalue = [2, 1]"] ;
38 -> 39 ;
40 [label="X[15] <= 0.5\nentropy = 1.0\nsamples = 2\nvalue = [1, 1]"] ;
39 -> 40 ;
41 [label="entropy = 0.0\nsamples = 1\nvalue = [0, 1]"] ;
40 -> 41 ;
42 [label="entropy = 0.0\nsamples = 1\nvalue = [1, 0]"] ;
40 -> 42 ;
43 [label="entropy = 0.0\nsamples = 1\nvalue = [1, 0]"] ;
39 -> 43 ;
44 [label="entropy = 0.0\nsamples = 10\nvalue = [10, 0]"] ;
38 -> 44 ;
45 [label="entropy = 0.0\nsamples = 11\nvalue = [11, 0]"] ;
31 -> 45 ;
46 [label="X[6] <= 0.5\nentropy = 0.8813\nsamples = 20\nvalue = [6, 14]"] ;
28 -> 46 ;
47 [label="entropy = 0.0\nsamples = 10\nvalue = [0, 10]"] ;
46 -> 47 ;
48 [label="X[3] <= 1.5\nentropy = 0.971\nsamples = 10\nvalue = [6, 4]"] ;
46 -> 48 ;
49 [label="entropy = 0.0\nsamples = 4\nvalue = [4, 0]"] ;
48 -> 49 ;
50 [label="X[8] <= 1.5\nentropy = 0.9183\nsamples = 6\nvalue = [2, 4]"] ;
48 -> 50 ;
51 [label="entropy = 0.0\nsamples = 4\nvalue = [0, 4]"] ;
50 -> 51 ;
52 [label="entropy = 0.0\nsamples = 2\nvalue = [2, 0]"] ;
50 -> 52 ;
}